33 64
name 0.009265 -0.080476 -0.000935 0.011832 0.107450 0.168543 0.102012 -0.075498 -0.050552 0.055606 0.089249 -0.027159 0.089759 0.062751 0.083110 0.156381 0.049650 -0.024504 0.050383 0.052393 -0.101266 -0.200015 0.169565 0.013481 0.173586 0.058942 0.110529 0.102117 0.001197 0.011521 0.024218 -0.072631 -0.044807 0.044989 0.038397 0.044746 -0.052378 0.085397 0.136476 -0.082193 0.017608 0.016372 0.133232 -0.098142 -0.003441 -0.058092 -0.095079 0.047525 0.126264 0.084045 0.152694 0.144792 0.028874 0.132948 -0.052209 0.070552 -0.092362 0.069261 -0.005994 -0.013032 0.020110 -0.082983 -0.112284 0.155014
what -0.010224 -0.038525 0.044264 -0.052118 0.114890 0.119105 0.065782 -0.033473 -0.007553 0.000639 0.063016 -0.004813 0.074957 0.045336 0.020392 0.104888 0.006828 -0.030268 0.046041 0.009250 -0.057812 -0.111970 0.086559 -0.010404 0.135002 0.034003 0.060932 0.065108 -0.033962 0.030369 0.040010 -0.048204 -0.028247 0.017723 0.008518 0.081641 -0.020771 0.025636 0.034752 -0.029162 -0.016369 -0.020683 0.092329 -0.098533 -0.026253 -0.044579 -0.000646 0.054606 0.062620 0.048419 0.106695 0.089779 0.010982 0.050049 -0.040599 0.052027 -0.014523 0.032516 0.005496 -0.019302 0.003235 -0.029943 -0.071103 0.045934
john -0.012912 -0.061480 0.006696 -0.028755 0.139583 0.142293 0.110529 -0.082302 -0.051763 0.044860 0.057611 -0.032489 0.093523 0.057818 0.080356 0.156738 0.046080 -0.038932 0.052551 0.013219 -0.101484 -0.177811 0.151317 0.022471 0.177382 0.056536 0.095728 0.088746 0.000437 0.035333 0.004746 -0.067990 -0.025316 0.042739 0.009694 0.075957 -0.035043 0.067675 0.121886 -0.069207 0.026994 0.008922 0.129124 -0.085812 -0.009089 -0.033101 -0.057735 0.039082 0.116616 0.070878 0.122003 0.131806 0.016601 0.118144 -0.052711 0.043694 -0.078979 0.050395 -0.005213 -0.036015 0.017471 -0.075033 -0.108066 0.121045
mmorse 0.053195 0.121964 -0.055848 0.263241 -0.416168 -0.315247 -0.240794 0.169676 0.097321 -0.041359 -0.159950 0.046155 -0.258321 -0.145047 -0.147801 -0.413479 -0.022505 0.146153 -0.129569 0.052598 0.225593 0.418944 -0.332037 0.018551 -0.501718 -0.119542 -0.249828 -0.138023 0.083080 -0.126305 -0.044728 0.164989 0.092469 -0.070009 -0.008287 -0.224537 -0.040896 -0.079441 -0.180092 0.065404 0.029977 0.008592 -0.379189 0.325707 0.084342 0.096534 -0.029793 -0.141578 -0.193078 -0.117613 -0.307108 -0.323880 0.015051 -0.185322 0.179530 -0.171238 0.027651 -0.168562 -0.063239 0.074186 0.010145 0.168842 0.291769 -0.133090
queries 0.005966 0.134769 -0.085008 0.077283 -0.231891 -0.259549 -0.162342 0.063696 0.063199 -0.038884 -0.215335 0.015495 -0.195533 -0.052705 -0.125310 -0.253938 -0.043143 0.063078 -0.057444 -0.052809 0.182924 0.330115 -0.220693 0.006566 -0.318632 -0.059601 -0.160867 -0.161273 0.058759 -0.073324 -0.087246 0.121416 0.091657 -0.056512 -0.018027 -0.142617 0.048868 -0.038068 -0.145772 0.089335 0.052786 -0.008527 -0.235881 0.185938 0.061488 0.096875 0.086935 -0.116608 -0.156667 -0.134950 -0.233609 -0.200698 -0.037395 -0.144812 0.096580 -0.130360 0.068304 -0.096823 0.009111 0.028692 -0.055316 0.079231 0.215377 -0.169075
dec 0.083012 0.117990 -0.038340 0.309786 -0.445601 -0.297361 -0.261910 0.199651 0.116476 -0.036601 -0.130521 0.031129 -0.257422 -0.180735 -0.151745 -0.451671 -0.028494 0.169829 -0.123597 0.082857 0.235553 0.433478 -0.355196 0.026156 -0.535017 -0.127735 -0.269274 -0.115601 0.071615 -0.148487 -0.021846 0.181365 0.086777 -0.072254 -0.023807 -0.241789 -0.074189 -0.083228 -0.179311 0.074588 0.008475 0.023802 -0.402738 0.347844 0.082959 0.070435 -0.061284 -0.131978 -0.201265 -0.101155 -0.325543 -0.344355 0.017007 -0.180213 0.194602 -0.160837 0.002778 -0.178582 -0.100596 0.087747 0.016910 0.181394 0.295116 -0.127608
attribute -0.022763 -0.065767 0.015474 -0.073451 0.150888 0.154176 0.117801 -0.069660 -0.068540 0.025839 0.092040 -0.014302 0.108595 0.065459 0.075939 0.174189 0.024942 -0.061251 0.046660 0.009966 -0.104130 -0.200978 0.177845 -0.008050 0.216057 0.061203 0.112914 0.078071 -0.017936 0.048425 0.019756 -0.099165 -0.052242 0.031664 0.032179 0.077948 -0.001171 0.067026 0.119711 -0.047063 0.001707 -0.002536 0.167104 -0.119189 -0.019398 -0.034762 -0.037969 0.056524 0.108978 0.074709 0.146136 0.149859 -0.005313 0.110008 -0.069097 0.075019 -0.035143 0.082593 0.028675 -0.026978 0.004350 -0.091907 -0.142286 0.114603
yorku 0.016747 0.132101 -0.056246 0.155440 -0.291213 -0.279273 -0.181098 0.095213 0.082586 -0.032297 -0.198409 0.013738 -0.225822 -0.105149 -0.122120 -0.326315 -0.042592 0.080658 -0.066146 -0.022075 0.195956 0.350412 -0.262698 0.018502 -0.388238 -0.087511 -0.200570 -0.131843 0.061237 -0.098551 -0.068224 0.139237 0.085965 -0.060850 -0.028169 -0.156830 -0.000172 -0.055075 -0.160097 0.086329 0.043345 -0.006072 -0.295650 0.228529 0.075159 0.104915 0.032942 -0.127507 -0.157551 -0.122200 -0.262792 -0.256559 -0.013990 -0.150562 0.135492 -0.139311 0.047735 -0.132086 -0.017208 0.043919 -0.024641 0.111839 0.248897 -0.165385
est 0.064264 0.108881 -0.042458 0.313273 -0.416871 -0.298132 -0.230421 0.171930 0.115302 -0.030370 -0.133769 0.039234 -0.252468 -0.166299 -0.153848 -0.431733 -0.032635 0.145862 -0.123215 0.081734 0.223483 0.396833 -0.338105 0.034272 -0.504220 -0.125471 -0.253019 -0.105484 0.070842 -0.139801 -0.025553 0.177586 0.078200 -0.062981 -0.012648 -0.217732 -0.074379 -0.076109 -0.173392 0.057981 0.025210 0.018426 -0.386995 0.336836 0.091046 0.074785 -0.060830 -0.128541 -0.176916 -0.101891 -0.310338 -0.328554 0.026180 -0.168328 0.192377 -0.167915 -0.002671 -0.161692 -0.090814 0.089395 0.014893 0.177477 0.282255 -0.125371
sense -0.020055 -0.065200 0.044653 -0.064937 0.138425 0.134853 0.075014 -0.048552 -0.041373 0.014807 0.095747 -0.016505 0.092860 0.038185 0.053722 0.144755 0.007961 -0.038397 0.034498 0.013526 -0.075423 -0.151214 0.124788 -0.011854 0.184978 0.037741 0.077871 0.075986 -0.031227 0.034204 0.041827 -0.061696 -0.037872 0.029488 0.010460 0.081992 -0.002918 0.017512 0.054793 -0.026342 -0.019399 -0.003831 0.119303 -0.112006 -0.027333 -0.042458 -0.022780 0.061531 0.073145 0.062361 0.125868 0.111159 0.010388 0.067227 -0.053016 0.069004 -0.023673 0.057079 0.012409 -0.028611 0.008537 -0.049639 -0.108210 0.063413
shmendrik 0.017032 -0.053618 -0.021192 -0.024263 0.090988 0.116075 0.095556 -0.062460 -0.047548 0.032465 0.030254 -0.023006 0.070324 0.060658 0.069041 0.128222 0.033331 -0.044496 0.025092 0.024778 -0.089266 -0.170374 0.142855 0.011952 0.134942 0.049774 0.091556 0.060716 0.019102 0.022586 -0.012114 -0.065268 -0.016658 0.028778 0.027141 0.037704 -0.013418 0.073084 0.129775 -0.072282 0.028250 0.010502 0.130464 -0.068133 -0.000502 -0.036694 -0.054935 0.038611 0.096494 0.060398 0.113960 0.114845 -0.000562 0.101006 -0.053007 0.062301 -0.060331 0.077968 0.008818 -0.019266 -0.010829 -0.076680 -0.101643 0.110370
who -0.053104 -0.070153 0.052584 -0.182592 0.243472 0.139285 0.125908 -0.084763 -0.050356 0.004950 0.123531 -0.006091 0.137597 0.071662 0.081086 0.241794 0.014565 -0.089428 0.043900 -0.064149 -0.138543 -0.230884 0.147346 -0.017104 0.285618 0.057137 0.115869 0.064992 -0.070411 0.109813 0.043859 -0.085189 -0.063750 0.038294 -0.007988 0.158659 0.033377 0.001611 0.055753 -0.009879 -0.033923 -0.015629 0.201214 -0.179038 -0.080780 -0.044159 0.034970 0.085369 0.088432 0.042745 0.159217 0.164811 -0.004436 0.068696 -0.108026 0.082919 0.020596 0.063605 0.044676 -0.056784 0.027050 -0.071358 -0.169222 0.041946
zadrozny 0.013967 0.100809 -0.043150 0.088496 -0.153667 -0.166974 -0.115986 0.045367 0.062938 -0.038646 -0.178629 -0.011492 -0.150745 -0.032359 -0.103803 -0.193133 -0.028250 0.051751 -0.011510 -0.024647 0.140788 0.264017 -0.170024 -0.001370 -0.260798 -0.044356 -0.119422 -0.093945 0.046676 -0.074498 -0.061361 0.113260 0.073065 -0.039169 -0.021823 -0.081927 0.011167 -0.017588 -0.115690 0.058935 0.035823 -0.024162 -0.195158 0.133092 0.066896 0.060965 0.064319 -0.082585 -0.108373 -0.093242 -0.158927 -0.153303 -0.015826 -0.102639 0.087761 -0.102128 0.033057 -0.072916 -0.007822 0.002866 -0.039439 0.066549 0.171373 -0.126393
vm1 0.025566 0.128007 -0.051914 0.187035 -0.341975 -0.307164 -0.217300 0.144866 0.101064 -0.043864 -0.175758 0.036586 -0.234879 -0.134699 -0.150644 -0.377009 -0.044323 0.109383 -0.085277 -0.002232 0.226627 0.406379 -0.300793 0.018242 -0.440479 -0.104897 -0.236648 -0.145842 0.064194 -0.106534 -0.053687 0.156670 0.083873 -0.079801 -0.021141 -0.189816 0.001635 -0.083927 -0.185430 0.090644 0.032163 -0.001229 -0.342455 0.267853 0.077127 0.100725 0.031686 -0.137695 -0.199090 -0.129786 -0.287286 -0.300950 -0.003315 -0.176019 0.152624 -0.146635 0.054867 -0.157840 -0.039244 0.062848 -0.008527 0.147581 0.272962 -0.169155
chaim 0.018082 -0.042722 -0.003569 -0.004806 0.084712 0.097723 0.096128 -0.066198 -0.035337 0.044425 0.055112 -0.020153 0.062308 0.049501 0.069032 0.114300 0.045591 -0.031718 0.030530 0.040175 -0.077971 -0.162644 0.131029 0.006837 0.127760 0.036199 0.075357 0.065209 0.017087 0.028538 -0.005643 -0.057129 -0.018687 0.031788 0.017344 0.031113 -0.026697 0.067521 0.112470 -0.064828 0.029605 0.022501 0.116214 -0.052336 0.001346 -0.025000 -0.062529 0.032117 0.084773 0.065486 0.094755 0.095493 0.003207 0.099325 -0.051955 0.041109 -0.074916 0.049812 0.008876 -0.011444 -0.000133 -0.063460 -0.079506 0.119637
subject 0.016223 0.127186 -0.076357 0.123321 -0.255182 -0.251521 -0.171733 0.079296 0.073060 -0.028712 -0.211018 0.014193 -0.205391 -0.076616 -0.113958 -0.292364 -0.039029 0.082378 -0.049912 -0.023422 0.190167 0.338768 -0.225854 0.020184 -0.359386 -0.070413 -0.165451 -0.134893 0.073312 -0.102673 -0.069337 0.133778 0.080107 -0.058798 -0.018762 -0.153875 0.020255 -0.041296 -0.130125 0.081217 0.044547 -0.012329 -0.253515 0.204953 0.084142 0.094955 0.055073 -0.117830 -0.147162 -0.125991 -0.237620 -0.228197 -0.023424 -0.130325 0.109209 -0.132189 0.049782 -0.102829 -0.009183 0.029599 -0.036765 0.093918 0.233930 -0.155840
value -0.020516 -0.046558 0.028899 -0.046666 0.113326 0.116828 0.079216 -0.040336 -0.045184 0.022429 0.090313 -0.007384 0.078624 0.046480 0.039440 0.125073 0.024346 -0.033150 0.037940 0.012332 -0.070571 -0.137806 0.112262 -0.017511 0.166424 0.034825 0.074713 0.059444 -0.032575 0.030124 0.032709 -0.071723 -0.043068 0.016490 0.026989 0.065201 -0.006832 0.036673 0.066382 -0.033642 -0.013595 -0.004709 0.114276 -0.097779 -0.030513 -0.034152 -0.018892 0.040034 0.080861 0.059828 0.115924 0.108139 -0.001668 0.065709 -0.052143 0.061771 -0.023414 0.056519 0.016789 -0.013351 0.012504 -0.059277 -0.094402 0.076697
logic -0.060599 -0.077191 0.064785 -0.206606 0.262924 0.147103 0.128734 -0.085836 -0.057393 -0.007218 0.140960 0.002630 0.157799 0.063245 0.094935 0.262045 0.003441 -0.096325 0.051605 -0.076860 -0.142001 -0.242606 0.164179 -0.013790 0.310062 0.056077 0.122397 0.082345 -0.084571 0.121881 0.051647 -0.088810 -0.070866 0.031927 -0.014418 0.178585 0.030186 -0.013158 0.044605 -0.003760 -0.027189 -0.018991 0.216937 -0.192304 -0.093125 -0.054533 0.061308 0.098088 0.076916 0.054617 0.167742 0.164018 -0.009228 0.061801 -0.119431 0.072274 0.018545 0.051544 0.046768 -0.056766 0.023219 -0.057147 -0.184289 0.031982
language -0.042470 -0.055292 0.053819 -0.137675 0.189885 0.123364 0.092837 -0.049333 -0.031003 -0.003971 0.112503 -0.003690 0.107589 0.044383 0.056634 0.176035 0.005548 -0.062818 0.047327 -0.039359 -0.103976 -0.169284 0.109849 -0.008734 0.228109 0.046452 0.087245 0.060200 -0.067232 0.086820 0.046324 -0.059751 -0.047202 0.026636 -0.004338 0.132293 0.018003 -0.010228 0.027270 -0.009717 -0.036161 -0.019670 0.155358 -0.143499 -0.058015 -0.031895 0.036048 0.070013 0.057297 0.040543 0.119654 0.114801 -0.000453 0.040826 -0.070775 0.069748 0.010336 0.035423 0.022688 -0.041045 0.025204 -0.048518 -0.132138 0.036236
semantics -0.056720 -0.069080 0.063355 -0.173068 0.211413 0.125509 0.100294 -0.059179 -0.051744 0.001247 0.120654 -0.005296 0.124489 0.054279 0.077755 0.212115 0.005735 -0.072930 0.041755 -0.056448 -0.114449 -0.203320 0.135661 -0.010119 0.259791 0.039226 0.099150 0.073878 -0.065370 0.102372 0.042694 -0.072046 -0.048159 0.020852 -0.004468 0.153125 0.016269 -0.014322 0.034422 -0.000593 -0.037723 -0.002223 0.172808 -0.148105 -0.077771 -0.042678 0.047330 0.077718 0.068307 0.042778 0.136632 0.134700 -0.011680 0.045033 -0.099725 0.058268 0.017113 0.053795 0.032532 -0.053624 0.022861 -0.049298 -0.150439 0.038727
wlodek -0.000964 0.137073 -0.072183 0.089941 -0.204310 -0.237366 -0.153082 0.049747 0.070552 -0.042020 -0.224562 -0.007434 -0.185768 -0.058620 -0.109671 -0.253527 -0.039419 0.051538 -0.027874 -0.053850 0.176840 0.323227 -0.215928 0.006394 -0.322281 -0.056188 -0.143350 -0.141570 0.068420 -0.091701 -0.076351 0.128972 0.082167 -0.044756 -0.023847 -0.110270 0.026987 -0.041443 -0.128740 0.086755 0.051685 -0.019015 -0.226751 0.176047 0.070598 0.095748 0.083448 -0.105320 -0.140765 -0.117918 -0.223312 -0.192560 -0.023158 -0.133467 0.093292 -0.129133 0.050901 -0.085320 0.004707 0.012736 -0.056324 0.072427 0.212289 -0.169335
support -0.023546 -0.056641 0.027172 -0.106831 0.170400 0.123419 0.096801 -0.076793 -0.050521 0.024456 0.086708 -0.004375 0.099948 0.061301 0.071714 0.181343 0.021574 -0.056383 0.048056 -0.030684 -0.101509 -0.186705 0.138468 0.009873 0.203958 0.043584 0.104867 0.067338 -0.031555 0.067499 0.018926 -0.073070 -0.043400 0.029056 -0.001579 0.110003 0.004622 0.029663 0.079817 -0.036042 0.000985 0.004033 0.157947 -0.127547 -0.044242 -0.045844 0.007464 0.052965 0.085946 0.042125 0.122567 0.127091 -0.005083 0.074136 -0.072370 0.053066 -0.021714 0.053262 0.019305 -0.033260 0.018903 -0.058023 -0.122450 0.064896
entity 0.011839 -0.035333 -0.000916 -0.001366 0.067645 0.082483 0.077255 -0.056309 -0.030110 0.032251 0.042439 -0.008500 0.054702 0.049242 0.049825 0.096063 0.029534 -0.027252 0.022478 0.025285 -0.073271 -0.138052 0.119755 0.004682 0.109027 0.034723 0.069102 0.048244 0.017537 0.029187 0.004306 -0.057083 -0.021045 0.021858 0.018463 0.042868 -0.024228 0.058849 0.092340 -0.048453 0.020345 0.017741 0.098655 -0.045717 0.000246 -0.029227 -0.058731 0.023263 0.068223 0.056024 0.088916 0.084290 0.009856 0.082503 -0.047043 0.029171 -0.061673 0.041418 -0.003429 -0.011540 0.005597 -0.053173 -0.076383 0.099918
reduplication -0.015632 -0.042878 0.016723 -0.026601 0.091855 0.099489 0.052001 -0.030948 -0.015354 0.023883 0.036532 -0.021754 0.049159 0.029928 0.028085 0.085962 0.015450 -0.014510 0.032746 0.006612 -0.052153 -0.099704 0.078262 0.005476 0.116032 0.035381 0.066107 0.046498 -0.010881 0.011721 0.009366 -0.030119 -0.025868 0.030073 0.016253 0.058070 -0.021042 0.035240 0.054545 -0.038725 -0.004397 -0.008176 0.079389 -0.073203 -0.018405 -0.032473 -0.016618 0.034084 0.068339 0.037273 0.083588 0.068021 0.008081 0.062494 -0.023010 0.028028 -0.035406 0.032161 -0.005740 -0.027487 0.006769 -0.047014 -0.067690 0.059112
fact -0.003095 -0.040406 0.018888 -0.020219 0.052374 0.066905 0.059237 -0.026242 -0.029348 0.022862 0.069778 -0.004030 0.044216 0.032642 0.027186 0.086021 0.017399 -0.013421 0.015013 0.018314 -0.055959 -0.099466 0.089546 -0.013283 0.100003 0.021251 0.053170 0.050574 -0.012297 0.013949 0.012380 -0.054184 -0.030599 0.015607 0.027460 0.022476 -0.001499 0.033543 0.062067 -0.017264 -0.006325 0.006583 0.076491 -0.049967 -0.014603 -0.029784 -0.041299 0.031961 0.054221 0.050068 0.073020 0.063170 0.007815 0.048649 -0.041120 0.049311 -0.026191 0.035065 0.011481 0.005647 0.000505 -0.044237 -0.068922 0.062636
construction -0.018689 0.012236 -0.016233 -0.002764 0.024495 0.005305 0.004352 -0.011032 0.015391 -0.006614 -0.057311 -0.020723 -0.025096 0.022210 -0.022294 -0.008063 0.005727 -0.004393 0.029497 -0.023667 0.020147 0.022797 0.006781 -0.004908 -0.015190 0.002203 0.014532 -0.023705 0.020715 -0.001934 -0.032483 0.017440 0.006912 0.011817 -0.004750 0.016016 0.004779 0.011961 -0.013237 -0.007862 0.016979 -0.017449 -0.004974 0.005694 0.010762 0.006647 0.024491 0.002352 0.008619 -0.003301 0.003908 -0.009558 -0.017423 -0.006920 0.000754 -0.023642 -0.001104 0.001973 0.013541 -0.024338 -0.013529 -0.014144 0.016985 -0.024367
sun 0.069966 0.097413 -0.029697 0.262662 -0.364607 -0.245845 -0.199388 0.161206 0.097050 -0.024005 -0.097592 0.034712 -0.208483 -0.135929 -0.118083 -0.354125 -0.013367 0.138266 -0.108098 0.079838 0.176787 0.330757 -0.285201 0.018999 -0.429656 -0.092375 -0.202706 -0.101303 0.054880 -0.119216 -0.028367 0.146985 0.067090 -0.046292 -0.008761 -0.187149 -0.050700 -0.052294 -0.137765 0.051926 0.018372 0.015915 -0.318532 0.279904 0.062467 0.061879 -0.056692 -0.104015 -0.157467 -0.072707 -0.254162 -0.275231 0.024492 -0.137852 0.146750 -0.132525 0.005425 -0.130879 -0.082640 0.085122 0.010308 0.151513 0.237570 -0.088558
list -0.018351 -0.033383 0.028568 -0.070508 0.103229 0.086222 0.050877 -0.034654 -0.024455 0.006005 0.052616 -0.010131 0.071025 0.035014 0.034685 0.096133 0.004974 -0.025335 0.033033 -0.006784 -0.054298 -0.099493 0.082578 -0.015684 0.127551 0.035873 0.060685 0.029994 -0.019253 0.029456 0.020883 -0.038690 -0.015387 0.019550 0.008891 0.055386 0.015628 0.004484 0.029818 -0.007971 -0.023814 -0.001501 0.097710 -0.083512 -0.030765 -0.020399 0.013188 0.033652 0.053269 0.036666 0.079319 0.084459 -0.003279 0.041125 -0.045061 0.040456 -0.006955 0.047298 0.010190 -0.029477 -0.004940 -0.043932 -0.067971 0.031668
tautology -0.017717 -0.052951 0.007584 -0.057202 0.118905 0.110164 0.079834 -0.059349 -0.043951 0.019972 0.046736 -0.008504 0.087585 0.049715 0.057420 0.129856 0.020768 -0.043819 0.043634 -0.000654 -0.075410 -0.154723 0.119025 0.009128 0.167293 0.043477 0.083993 0.050467 -0.011957 0.034238 0.008265 -0.055387 -0.025026 0.032676 0.013101 0.069212 -0.006088 0.046401 0.070358 -0.046811 -0.000208 -0.005641 0.126764 -0.106573 -0.025539 -0.040297 -0.008625 0.044419 0.075188 0.038670 0.112265 0.108187 0.006726 0.073339 -0.053285 0.044917 -0.024676 0.055081 0.011322 -0.024882 0.001567 -0.060263 -0.086429 0.065731
anything 0.004293 0.064037 -0.019831 0.052654 -0.091079 -0.089879 -0.062754 0.032442 0.039661 -0.018848 -0.107825 0.000154 -0.095804 -0.014693 -0.065189 -0.112500 -0.015416 0.040599 -0.013398 -0.015438 0.089204 0.146171 -0.096273 -0.007064 -0.154481 -0.033712 -0.067978 -0.046810 0.039860 -0.041478 -0.038031 0.068170 0.037241 -0.018281 -0.016060 -0.039847 -0.001933 -0.008828 -0.064756 0.031550 0.020225 -0.016012 -0.103484 0.074845 0.030275 0.039373 0.032494 -0.040627 -0.059240 -0.043432 -0.086220 -0.093489 -0.016969 -0.045994 0.049486 -0.055037 0.007003 -0.037909 -0.007622 0.001332 -0.029066 0.030552 0.089501 -0.070924
level -0.021729 -0.050544 0.024712 -0.090298 0.160465 0.134999 0.089970 -0.060676 -0.044301 0.009945 0.070621 -0.013133 0.109197 0.050783 0.064194 0.172823 0.019531 -0.046979 0.037853 -0.016901 -0.089068 -0.172620 0.139054 -0.000204 0.209986 0.054446 0.110511 0.052898 -0.035722 0.046535 0.013146 -0.062613 -0.045422 0.036142 0.012424 0.088641 0.006880 0.028437 0.072283 -0.030774 -0.007526 -0.011146 0.151781 -0.129631 -0.043169 -0.032702 0.004363 0.054517 0.088551 0.048796 0.126488 0.137363 0.006696 0.075733 -0.062025 0.071938 -0.016906 0.063058 0.025646 -0.032728 0.007582 -0.058578 -0.115853 0.064445
date 0.054155 0.074951 -0.032462 0.193861 -0.256999 -0.176513 -0.157805 0.117084 0.064850 -0.018308 -0.083824 0.023439 -0.158501 -0.096445 -0.084583 -0.263808 -0.025529 0.090477 -0.080781 0.042755 0.134149 0.264061 -0.219088 0.010738 -0.309793 -0.064390 -0.154473 -0.063249 0.035699 -0.082891 -0.021737 0.115382 0.059249 -0.033650 -0.011021 -0.133310 -0.044113 -0.037536 -0.105533 0.051152 0.003047 0.015150 -0.239063 0.203904 0.050313 0.043824 -0.036940 -0.086727 -0.111773 -0.063574 -0.200076 -0.197128 0.014172 -0.101677 0.116776 -0.101065 0.012606 -0.110246 -0.047088 0.060816 0.003484 0.102321 0.181536 -0.083687
form -0.012885 -0.024277 0.023885 -0.061558 0.089618 0.056333 0.038886 -0.019148 -0.001368 -0.007700 0.031700 -0.012955 0.056998 0.020620 0.018806 0.072868 -0.002609 -0.032100 0.028917 -0.009505 -0.032482 -0.051165 0.039328 -0.011258 0.091429 0.019609 0.032486 0.025976 -0.035831 0.020444 0.010866 -0.030328 -0.016124 0.016345 -0.009746 0.055341 0.015690 -0.009752 -0.002920 -0.002258 -0.031572 -0.005969 0.065533 -0.067411 -0.022316 -0.023317 0.036024 0.038211 0.024147 0.013995 0.050903 0.050077 0.002042 0.019142 -0.030908 0.032300 0.021276 0.033142 0.014836 -0.014975 -0.005417 -0.012260 -0.044509 0.002238
